digraph Tree {
node [shape=box, style="filled, rounded", color="black", fontname="helvetica"] ;
edge [fontname="helvetica"] ;
0 [label="petal width (cm) <= 0.8\ngini = 0.665\nsamples = 120\nvalue = [36, 42, 42]\nclass = versicolor", fillcolor="#ffffff"] ;
1 [label="gini = 0.0\nsamples = 36\nvalue = [36, 0, 0]\nclass = setosa", fillcolor="#e58139"] ;
0 -> 1 [labeldistance=2.5, labelangle=45, headlabel="True"] ;
2 [label="petal width (cm) <= 1.75\ngini = 0.5\nsamples = 84\nvalue = [0, 42, 42]\nclass = versicolor", fillcolor="#ffffff"] ;
0 -> 2 [labeldistance=2.5, labelangle=-45, headlabel="False"] ;
3 [label="petal length (cm) <= 5.05\ngini = 0.162\nsamples = 45\nvalue = [0, 41, 4]\nclass = versicolor", fillcolor="#4ce88d"] ;
2 -> 3 ;
4 [label="sepal length (cm) <= 4.95\ngini = 0.048\nsamples = 41\nvalue = [0, 40, 1]\nclass = versicolor", fillcolor="#3ee684"] ;
3 -> 4 ;
5 [label="gini = 0.0\nsamples = 1\nvalue = [0, 0, 1]\nclass = virginica", fillcolor="#8139e5"] ;
4 -> 5 ;
6 [label="gini = 0.0\nsamples = 40\nvalue = [0, 40, 0]\nclass = versicolor", fillcolor="#39e581"] ;
4 -> 6 ;
7 [label="sepal length (cm) <= 6.05\ngini = 0.375\nsamples = 4\nvalue = [0, 1, 3]\nclass = virginica", fillcolor="#ab7bee"] ;
3 -> 7 ;
8 [label="gini = 0.0\nsamples = 1\nvalue = [0, 1, 0]\nclass = versicolor", fillcolor="#39e581"] ;
7 -> 8 ;
9 [label="gini = 0.0\nsamples = 3\nvalue = [0, 0, 3]\nclass = virginica", fillcolor="#8139e5"] ;
7 -> 9 ;
10 [label="petal length (cm) <= 4.85\ngini = 0.05\nsamples = 39\nvalue = [0, 1, 38]\nclass = virginica", fillcolor="#843ee6"] ;
2 -> 10 ;
11 [label="sepal length (cm) <= 5.95\ngini = 0.5\nsamples = 2\nvalue = [0, 1, 1]\nclass = versicolor", fillcolor="#ffffff"] ;
10 -> 11 ;
12 [label="gini = 0.0\nsamples = 1\nvalue = [0, 1, 0]\nclass = versicolor", fillcolor="#39e581"] ;
11 -> 12 ;
13 [label="gini = 0.0\nsamples = 1\nvalue = [0, 0, 1]\nclass = virginica", fillcolor="#8139e5"] ;
11 -> 13 ;
14 [label="gini = 0.0\nsamples = 37\nvalue = [0, 0, 37]\nclass = virginica", fillcolor="#8139e5"] ;
10 -> 14 ;
}